[{"type":"dense","activation":"relu","W":[[-0.050266891717910767,0.0918172150850296],[4.5833990043320227E-6,4.7314184485003352E-5],[0.0011414937907829881,-0.72059941291809082],[0.00031325872987508774,-0.28534895181655884],[-0.00059009442338719964,0.29806840419769287],[-0.021096557378768921,-0.39308765530586243],[-0.00027153463452123106,0.21065348386764526],[0.00039168877992779016,0.62082797288894653],[-0.00025796494446694851,-0.31740891933441162],[0.35596609115600586,0.002067164983600378],[0.0723884180188179,-0.13384205102920532],[-2.4878798285499215E-5,0.46409234404563904],[-5.6885728554334491E-5,-9.43453487707302E-5],[0.41046798229217529,-1.6989542928058654E-5],[-4.7234925659722649E-6,0.37964150309562683],[0.60380661487579346,0.00046972016571089625],[0.26216587424278259,0.00079981464659795165],[-6.5929314587265253E-5,4.3141611968167126E-5],[-0.54044616222381592,-0.00010309363278793171],[0.029728919267654419,0.38228398561477661]],"b":[0.0015793725615367293,-0.00827894639223814,0.024007877334952354,-0.25182792544364929,0.12405858933925629,-0.053408771753311157,0.01106997299939394,0.22035977244377136,0.1219995841383934,-0.42239576578140259,-0.2792113721370697,-0.011632976122200489,-0.1276906430721283,0.59462714195251465,-0.21972110867500305,0.80519181489944458,-0.29196017980575562,-0.0024225155357271433,-0.75443452596664429,0.11707079410552979]},{"type":"dense","activation":"relu","W":[[6.5143860410898924E-5,-6.3936880906112492E-5,0.31029695272445679,-0.00029770645778626204,-0.0010508932173252106,0.1762634813785553,0.00023276907450053841,-0.0055499416776001453,0.00043312954949215055,-0.001378039363771677,-0.0002941632701549679,-0.0046286568976938725,7.4542404036037624E-6,0.3182671070098877,-0.0018979562446475029,0.10059115290641785,-0.00028181937523186207,0.00013176642823964357,0.081016771495342255,-0.0044162715785205364],[-0.0001141419998020865,4.8742094804765657E-6,-0.023213401436805725,-0.00083366333274170756,0.0045789694413542747,-0.00047749740770086646,0.003436065511777997,0.0059286360628902912,-0.00052190752467140555,0.2695242166519165,0.16437400877475739,0.0058570615947246552,-1.7978522009798326E-5,0.17790772020816803,0.0044789565727114677,0.13089895248413086,0.12016963213682175,-4.7384703066200018E-5,-2.095895615639165E-5,0.0052451072260737419],[3.3947253541555256E-5,-7.3273113230243325E-6,0.36291658878326416,0.24393925070762634,-6.6618158598430455E-5,-0.0006414046511054039,-0.00034517369931563735,2.5603272661101073E-5,-0.00089983013458549976,0.00044587149750441313,9.34466952458024E-5,-4.1072864405578E-5,-3.2727446523495018E-5,-0.000799112836830318,-0.00012437650002539158,-0.14206692576408386,0.00038009369745850563,3.9762668166076764E-5,-0.12379974126815796,5.2096052968408912E-5],[-0.024351898580789566,-9.4203795015346259E-5,0.0097898859530687332,-0.00030417146626859903,0.00039478400140069425,-0.00082364107947796583,-6.9219222496030852E-6,0.061349224299192429,-0.00032577960519120097,-0.00011701194307534024,0.00011914060451090336,-7.9359451774507761E-5,-2.5119363272096962E-5,-0.0020427573472261429,-0.055897071957588196,-0.59421956539154053,2.2761872969567776E-5,7.6119740697322413E-6,-0.55560773611068726,0.00069171626819297671],[-0.00010561643284745514,-0.00019660843827296048,1.3532888260670006E-5,2.2384137992048636E-5,1.0008880053646863E-6,-2.4517605197615921E-5,-0.00011884002742590383,2.6497968065086752E-5,6.51226073387079E-5,-0.00018227449618279934,0.00017544545698910952,-4.2924111767206341E-5,0.00028444227064028382,1.7948608729057014E-5,-0.00019830581732094288,8.0791251093614846E-6,-4.3002713937312365E-5,0.00011884945706697181,7.0383262936957181E-5,0.00014168304915074259],[-2.9823804652551189E-5,-0.00038688091444782913,-0.00051842734683305025,0.00015228243137244135,0.00054993072990328074,0.00044581314432434738,0.0007948137354105711,-0.000677126576192677,0.00054242461919784546,-0.000153495988342911,9.0476241894066334E-5,-0.00049448281060904264,5.1952254580101E-5,-0.087722465395927429,6.408704211935401E-5,-0.047689944505691528,-2.2099469788372517E-5,7.8639357525389642E-5,0.0033636488951742649,-0.00045438949018716812],[0.00027821498224511743,1.99188434635289E-6,0.19767332077026367,0.0020504845306277275,0.00022611574968323112,0.0018465281464159489,0.00016449971008114517,-0.0002396266208961606,0.0024012292269617319,0.0020265209022909403,0.00076147075742483139,3.3489235647721216E-5,-0.00012693813187070191,0.001966073177754879,2.919099097198341E-5,0.011466557160019875,0.0016803543549031019,-0.00015835370868444443,0.00027688738191500306,-0.00016684939328115433],[0.055692028254270554,-1.4414672477869317E-5,-0.031658746302127838,-8.145722676999867E-5,0.26640903949737549,0.0006535532302223146,0.28048717975616455,0.47534596920013428,0.00064507860224694014,-0.000867191469296813,-3.2126459700521082E-5,0.33968445658683777,2.0805484382435679E-5,-0.00033588494989089668,0.17440855503082275,-0.00097471388289704919,-0.0017270197859033942,7.8842509537935257E-5,-0.015429056249558926,0.57565617561340332],[-4.029645788250491E-5,-2.0905705241602845E-5,0.52024662494659424,0.00013551866868510842,0.00035418127663433552,0.27671486139297485,7.9867291788104922E-5,-0.00033559449366293848,0.04448135569691658,0.00079176452709361911,3.3101696317316964E-6,5.1329989219084382E-6,-2.165694058930967E-5,0.0004075182368978858,0.00023893298930488527,0.00056459096958860755,0.072213634848594666,1.5295518096536398E-7,0.00689812982454896,0.00020908110309392214],[-0.00011683203047141433,-6.01948268013075E-5,0.00053148978622630239,0.052571170032024384,0.000844414287712425,0.34851497411727905,0.00028874579584226012,0.0010001176269724965,0.0679851546883583,-0.30160751938819885,3.9944876334629953E-5,0.0009040992590598762,-1.3705521269002929E-5,-0.0012085408670827746,0.00030886218883097172,0.028356693685054779,-0.032711822539567947,-4.8645422793924809E-5,-0.00016027184028644115,0.0013580420054495335]],"b":[0.24270309507846832,-0.40640333294868469,0.203373983502388,0.74914979934692383,-0.057451404631137848,0.16868038475513458,-0.073745764791965485,0.21291682124137878,0.015835395082831383,0.22132501006126404]},{"type":"dense","activation":"relu","W":[[-0.445882648229599,0.13217009603977203,-0.39116817712783813,-0.20595945417881012,-0.30123844742774963,0.02555360458791256,-1.4370439052581787,1.1143324375152588,-0.76861000061035156,-0.67257601022720337],[-0.37382134795188904,0.917015016078949,0.64664578437805176,1.6354982852935791,0.10578352212905884,0.6373283863067627,-0.17058603465557098,-0.14038427174091339,0.28899985551834106,-0.81373065710067749]],"b":[0.098194882273674011,-0.13673155009746552]}]